<?xml version="1.0"?>
<opencv_storage>
<cascade>
  <stageType>BOOST</stageType>
  <featureType>HAAR</featureType>
  <height>20</height>
  <width>20</width>
  <stageParams>
    <boostType>GAB</boostType>
    <minHitRate>9.9900001287460327e-01</minHitRate>
    <maxFalseAlarm>5.0000000000000000e-01</maxFalseAlarm>
    <weightTrimRate>9.4999999999999996e-01</weightTrimRate>
    <maxDepth>1</maxDepth>
    <maxWeakCount>100</maxWeakCount></stageParams>
  <featureParams>
    <maxCatCount>0</maxCatCount>
    <featSize>1</featSize>
    <mode>ALL</mode></featureParams>
  <stageNum>15</stageNum>
  <stages>
    <!-- stage 0 -->
    <_>
      <maxWeakCount>5</maxWeakCount>
      <stageThreshold>-9.3712598085403442e-01</stageThreshold>
      <weakClassifiers>
        <_>
          <internalNodes>
            0 -1 25 1.1260598897933960e-01</internalNodes>
          <leafValues>
            -6.9036900997161865e-01 6.8637531995773315e-01</leafValues></_>
        <_>
          <internalNodes>
            0 -1 4 -9.2650330066680908e-01</internalNodes>
          <leafValues>
            9.5582556724548340e-01 -3.9727294445037842e-01</leafValues></_>
        <_>
          <internalNodes>
            0 -1 29 -6.2955683097243309e-04</internalNodes>
          <leafValues>
            -9.5957309007644653e-01 3.9270341396331787e-01</leafValues></_>
        <_>
          <internalNodes>
            0 -1 26 1.4587342739105225e-02</internalNodes>
          <leafValues>
            -5.5657082796096802e-01 5.5127197504043579e-01</leafValues></_>
        <_>
          <internalNodes>
            0 -1 69 3.1797704286873341e-04</internalNodes>
          <leafValues>
            3.1438341736793518e-01 -9.6006458997726440e-01</leafValues></_></weakClassifiers></_>
    <!-- stage 1 -->
    <_>
      <maxWeakCount>6</maxWeakCount>
      <stageThreshold>-8.9181458950042725e-01</stageThreshold>
      <weakClassifiers>
        <_>
          <internalNodes>
            0 -1 100 -4.0761820971965790e-02</internalNodes>
          <leafValues>
            6.1575180292129517e-01 -7.0120257139205933e-01</leafValues></_>
        <_>
          <internalNodes>
            0 -1 21 -7.2867101430892944e-01</internalNodes>
          <leafValues>
            9.3516695499420166e-01 -4.1025078296661377e-01</leafValues></_>
        <_>
          <internalNodes>
            0 -1 27 2.1359726786613464e-02</internalNodes>
          <leafValues>
            -4.9986815452575684e-01 6.9718581438064575e-01</leafValues></_>
        <_>
          <internalNodes>
            0 -1 54 -3.9768795249983668e-04</internalNodes>
          <leafValues>
            -9.6016114950180054e-01 3.2834932208061218e-01</leafValues></_>
        <_>
          <internalNodes>
            0 -1 110 4.1483964771032333e-02</internalNodes>
          <leafValues>
            -3.6378130316734314e-01 7.8692448139190674e-01</leafValues></_>
        <_>
          <internalNodes>
            0 -1 113 1.8404860049486160e-02</internalNodes>
          <leafValues>
            -3.7663170695304871e-01 7.5493896007537842e-01</leafValues></_></weakClassifiers></_>
    <!-- stage 2 -->
    <_>
      <maxWeakCount>7</maxWeakCount>
      <stageThreshold>-1.6030626296997070e+00</stageThreshold>
      <weakClassifiers>
        <_>
          <internalNodes>
            0 -1 106 -1.8017452210187912e-02</internalNodes>
          <leafValues>
            6.5538460016250610e-01 -6.0680848360061646e-01</leafValues></_>
        <_>
          <internalNodes>
            0 -1 101 7.9254532465711236e-04</internalNodes>
          <leafValues>
            2.1484906971454620e-01 -9.7827863693237305e-01</leafValues></_>
        <_>
          <internalNodes>
            0 -1 112 -2.2664258722215891e-04</internalNodes>
          <leafValues>
            -9.7144854068756104e-01 1.4295782148838043e-01</leafValues></_>
        <_>
          <internalNodes>
            0 -1 0 -1.3043087907135487e-02</internalNodes>
          <leafValues>
            5.9632390737533569e-01 -3.7320509552955627e-01</leafValues></_>
        <_>
          <internalNodes>
            0 -1 49 -1.7420723452232778e-05</internalNodes>
          <leafValues>
            -8.8283014297485352e-01 2.4711650609970093e-01</leafValues></_>
        <_>
          <internalNodes>
            0 -1 115 -9.7535699605941772e-03</internalNodes>
          <leafValues>
            6.6932910680770874e-01 -3.5827231407165527e-01</leafValues></_>
        <_>
          <internalNodes>
            0 -1 109 -2.4163388297893107e-04</internalNodes>
          <leafValues>
            -8.6970013380050659e-01 2.8817158937454224e-01</leafValues></_></weakClassifiers></_>
    <!-- stage 3 -->
    <_>
      <maxWeakCount>8</maxWeakCount>
      <stageThreshold>-1.3484090566635132e+00</stageThreshold>
      <weakClassifiers>
        <_>
          <internalNodes>
            0 -1 41 2.4419628083705902e-02</internalNodes>
          <leafValues>
            -6.2109887599945068e-01 5.6965517997741699e-01</leafValues></_>
        <_>
          <internalNodes>
            0 -1 72 1.5093022026121616e-02</internalNodes>
          <leafValues>
            -3.2806023955345154e-01 7.4374258518218994e-01</leafValues></_>
        <_>
          <internalNodes>
            0 -1 109 5.5957434233278036e-04</internalNodes>
          <leafValues>
            2.8520965576171875e-01 -9.5624440908432007e-01</leafValues></_>
        <_>
          <internalNodes>
            0 -1 51 -9.5947021618485451e-03</internalNodes>
          <leafValues>
            6.7724657058715820e-01 -3.8788193464279175e-01</leafValues></_>
        <_>
          <internalNodes>
            0 -1 56 -6.6151696955785155e-05</internalNodes>
          <leafValues>
            -8.8009786605834961e-01 3.0598267912864685e-01</leafValues></_>
        <_>
          <internalNodes>
            0 -1 3 -6.2874341011047363e-01</internalNodes>
          <leafValues>
            8.9898014068603516e-01 -2.7329242229461670e-01</leafValues></_>
        <_>
          <internalNodes>
            0 -1 104 -2.7435604482889175e-02</internalNodes>
          <leafValues>
            6.4400506019592285e-01 -4.5493188500404358e-01</leafValues></_>
        <_>
          <internalNodes>
            0 -1 96 -4.8455857904627919e-04</internalNodes>
          <leafValues>
            -9.6180659532546997e-01 2.1280762553215027e-01</leafValues></_></weakClassifiers></_>
    <!-- stage 4 -->
    <_>
      <maxWeakCount>9</maxWeakCount>
      <stageThreshold>-1.4485116004943848e+00</stageThreshold>
      <weakClassifiers>
        <_>
          <internalNodes>
            0 -1 40 -1.3047939166426659e-02</internalNodes>
          <leafValues>
            5.4309165477752686e-01 -6.1568975448608398e-01</leafValues></_>
        <_>
          <internalNodes>
            0 -1 61 1.5651380643248558e-02</internalNodes>
          <leafValues>
            -3.8807654380798340e-01 7.2042787075042725e-01</leafValues></_>
        <_>
          <internalNodes>
            0 -1 63 -9.0321134775876999e-03</internalNodes>
          <leafValues>
            6.3502860069274902e-01 -2.6452058553695679e-01</leafValues></_>
        <_>
          <internalNodes>
            0 -1 90 4.1634142689872533e-05</internalNodes>
          <leafValues>
            -4.7739595174789429e-01 3.6113536357879639e-01</leafValues></_>
        <_>
          <internalNodes>
            0 -1 24 -7.0131206512451172e-01</internalNodes>
          <leafValues>
            8.2854527235031128e-01 -2.4560014903545380e-01</leafValues></_>
        <_>
          <internalNodes>
            0 -1 82 -7.2268508374691010e-03</internalNodes>
          <leafValues>
            6.2688171863555908e-01 -3.2360389828681946e-01</leafValues></_>
        <_>
          <internalNodes>
            0 -1 79 4.1451878496445715e-04</internalNodes>
          <leafValues>
            2.3383183777332306e-01 -9.2575621604919434e-01</leafValues></_>
        <_>
          <internalNodes>
            0 -1 65 -2.4437867105007172e-03</internalNodes>
          <leafValues>
            5.2154529094696045e-01 -3.9892768859863281e-01</leafValues></_>
        <_>
          <internalNodes>
            0 -1 76 1.6876503359526396e-03</internalNodes>
          <leafValues>
            1.9293984770774841e-01 -9.7899109125137329e-01</leafValues></_></weakClassifiers></_>
    <!-- stage 5 -->
    <_>
      <maxWeakCount>13</maxWeakCount>
      <stageThreshold>-1.7340438365936279e+00</stageThreshold>
      <weakClassifiers>
        <_>
          <internalNodes>
            0 -1 93 1.7539178952574730e-03</internalNodes>
          <leafValues>
            -6.5773195028305054e-01 2.6037734746932983e-01</leafValues></_>
        <_>
          <internalNodes>
            0 -1 18 -1.3759079575538635e-01</internalNodes>
          <leafValues>
            7.4758374691009521e-01 -2.9899558424949646e-01</leafValues></_>
        <_>
          <internalNodes>
            0 -1 62 -5.6516904383897781e-02</internalNodes>
          <leafValues>
            5.4316753149032593e-01 -5.1515722274780273e-01</leafValues></_>
        <_>
          <internalNodes>
            0 -1 7 9.6834287047386169e-02</internalNodes>
          <leafValues>
            2.4451164901256561e-01 -8.9620631933212280e-01</leafValues></_>
        <_>
          <internalNodes>
            0 -1 105 1.0396571457386017e-01</internalNodes>
          <leafValues>
            1.9058269262313843e-01 -8.5872524976730347e-01</leafValues></_>
        <_>
          <internalNodes>
            0 -1 10 -9.4476342201232910e-02</internalNodes>
          <leafValues>
            -8.8956278562545776e-01 1.3977301120758057e-01</leafValues></_>
        <_>
          <internalNodes>
            0 -1 81 1.4791636727750301e-02</internalNodes>
          <leafValues>
            -2.8272223472595215e-01 6.6038644313812256e-01</leafValues></_>
        <_>
          <internalNodes>
            0 -1 71 1.6673892736434937e-02</internalNodes>
          <leafValues>
            -2.8632628917694092e-01 6.5118378400802612e-01</leafValues></_>
        <_>
          <internalNodes>
            0 -1 43 1.8683087080717087e-02</internalNodes>
          <leafValues>
            -2.0875395834445953e-01 7.3979347944259644e-01</leafValues></_>
        <_>
          <internalNodes>
            0 -1 30 -8.2783610559999943e-04</internalNodes>
          <leafValues>
            -8.8273209333419800e-01 2.2740289568901062e-01</leafValues></_>
        <_>
          <internalNodes>
            0 -1 119 1.9299503415822983e-02</internalNodes>
          <leafValues>
            -3.4115335345268250e-01 5.1776713132858276e-01</leafValues></_>
        <_>
          <internalNodes>
            0 -1 11 -3.0645114183425903e-01</internalNodes>
          <leafValues>
            7.3252195119857788e-01 -2.2960795462131500e-01</leafValues></_>
        <_>
          <internalNodes>
            0 -1 75 1.8695455044507980e-02</internalNodes>
          <leafValues>
            -3.8964900374412537e-01 4.5835340023040771e-01</leafValues></_></weakClassifiers></_>
    <!-- stage 6 -->
    <_>
      <maxWeakCount>9</maxWeakCount>
      <stageThreshold>-1.6244611740112305e+00</stageThreshold>
      <weakClassifiers>
        <_>
          <internalNodes>
            0 -1 14 2.4216109514236450e-01</internalNodes>
          <leafValues>
            -5.8972007036209106e-01 3.4713762998580933e-01</leafValues></_>
        <_>
          <internalNodes>
            0 -1 109 -2.1594960708171129e-04</internalNodes>
          <leafValues>
            -8.8491880893707275e-01 1.2855990231037140e-01</leafValues></_>
        <_>
          <internalNodes>
            0 -1 32 8.4463536739349365e-02</internalNodes>
          <leafValues>
            1.2009948492050171e-01 -9.5877605676651001e-01</leafValues></_>
        <_>
          <internalNodes>
            0 -1 45 -3.9328962564468384e-02</internalNodes>
          <leafValues>
            -8.4440839290618896e-01 2.0608125627040863e-01</leafValues></_>
        <_>
          <internalNodes>
            0 -1 55 4.1630628402344882e-05</internalNodes>
          <leafValues>
            -4.9181446433067322e-01 4.0051251649856567e-01</leafValues></_>
        <_>
          <internalNodes>
            0 -1 1 -3.9015312213450670e-03</internalNodes>
          <leafValues>
            5.6870448589324951e-01 -3.1667479872703552e-01</leafValues></_>
        <_>
          <internalNodes>
            0 -1 103 -6.7951334640383720e-03</internalNodes>
          <leafValues>
            5.4766470193862915e-01 -2.4218755960464478e-01</leafValues></_>
        <_>
          <internalNodes>
            0 -1 80 1.5222543850541115e-02</internalNodes>
          <leafValues>
            -2.6244881749153137e-01 6.6340053081512451e-01</leafValues></_>
        <_>
          <internalNodes>
            0 -1 6 -1.3150611519813538e-01</internalNodes>
          <leafValues>
            8.4499275684356689e-01 -1.7635613679885864e-01</leafValues></_></weakClassifiers></_>
    <!-- stage 7 -->
    <_>
      <maxWeakCount>9</maxWeakCount>
      <stageThreshold>-1.0428190231323242e+00</stageThreshold>
      <weakClassifiers>
        <_>
          <internalNodes>
            0 -1 15 3.2880714535713196e-01</internalNodes>
          <leafValues>
            -5.9748429059982300e-01 4.2635658383369446e-01</leafValues></_>
        <_>
          <internalNodes>
            0 -1 41 -2.4185732007026672e-02</internalNodes>
          <leafValues>
            7.2057819366455078e-01 -2.4908627569675446e-01</leafValues></_>
        <_>
          <internalNodes>
            0 -1 16 3.1011441722512245e-02</internalNodes>
          <leafValues>
            -4.3356764316558838e-01 4.6867346763610840e-01</leafValues></_>
        <_>
          <internalNodes>
            0 -1 36 3.6295503377914429e-03</internalNodes>
          <leafValues>
            1.8402355909347534e-01 -9.5356363058090210e-01</leafValues></_>
        <_>
          <internalNodes>
            0 -1 8 -5.0711587071418762e-02</internalNodes>
          <leafValues>
            6.9549232721328735e-01 -2.0272162556648254e-01</leafValues></_>
        <_>
          <internalNodes>
            0 -1 48 2.7658749371767044e-02</internalNodes>
          <leafValues>
            -4.2488548159599304e-01 4.7130224108695984e-01</leafValues></_>
        <_>
          <internalNodes>
            0 -1 57 1.9063502550125122e-03</internalNodes>
          <leafValues>
            1.2307753413915634e-01 -9.5644956827163696e-01</leafValues></_>
        <_>
          <internalNodes>
            0 -1 12 -6.2232576310634613e-02</internalNodes>
          <leafValues>
            -8.2697296142578125e-01 1.6148014366626740e-01</leafValues></_>
        <_>
          <internalNodes>
            0 -1 84 -1.2732577510178089e-02</internalNodes>
          <leafValues>
            6.0582339763641357e-01 -2.6449665427207947e-01</leafValues></_></weakClassifiers></_>
    <!-- stage 8 -->
    <_>
      <maxWeakCount>8</maxWeakCount>
      <stageThreshold>-1.3002080917358398e+00</stageThreshold>
      <weakClassifiers>
        <_>
          <internalNodes>
            0 -1 88 4.3030722736148164e-05</internalNodes>
          <leafValues>
            -6.9681847095489502e-01 8.3750896155834198e-02</leafValues></_>
        <_>
          <internalNodes>
            0 -1 92 4.0156200528144836e-02</internalNodes>
          <leafValues>
            -3.0048313736915588e-01 5.8305269479751587e-01</leafValues></_>
        <_>
          <internalNodes>
            0 -1 97 -8.2535727415233850e-04</internalNodes>
          <leafValues>
            5.4217183589935303e-01 -4.0266299247741699e-01</leafValues></_>
        <_>
          <internalNodes>
            0 -1 117 2.0352187566459179e-03</internalNodes>
          <leafValues>
            2.3754701018333435e-01 -7.8148514032363892e-01</leafValues></_>
        <_>
          <internalNodes>
            0 -1 95 -3.8985628634691238e-04</internalNodes>
          <leafValues>
            -9.1397130489349365e-01 2.0243185758590698e-01</leafValues></_>
        <_>
          <internalNodes>
            0 -1 9 5.1590222865343094e-03</internalNodes>
          <leafValues>
            1.1394628882408142e-01 -8.3242189884185791e-01</leafValues></_>
        <_>
          <internalNodes>
            0 -1 19 -3.9452672936022282e-03</internalNodes>
          <leafValues>
            -9.0952563285827637e-01 1.4306645095348358e-01</leafValues></_>
        <_>
          <internalNodes>
            0 -1 38 -3.2109320163726807e-02</internalNodes>
          <leafValues>
            5.9514498710632324e-01 -2.6140129566192627e-01</leafValues></_></weakClassifiers></_>
    <!-- stage 9 -->
    <_>
      <maxWeakCount>12</maxWeakCount>
      <stageThreshold>-1.6466376781463623e+00</stageThreshold>
      <weakClassifiers>
        <_>
          <internalNodes>
            0 -1 114 -1.1866472195833921e-03</internalNodes>
          <leafValues>
            1.6666667163372040e-01 -6.4502161741256714e-01</leafValues></_>
        <_>
          <internalNodes>
            0 -1 66 -6.9630146026611328e-02</internalNodes>
          <leafValues>
            7.5796222686767578e-01 -2.4876146018505096e-01</leafValues></_>
        <_>
          <internalNodes>
            0 -1 99 -1.5498893335461617e-02</internalNodes>
          <leafValues>
            5.1051187515258789e-01 -3.1456652283668518e-01</leafValues></_>
        <_>
          <internalNodes>
            0 -1 83 -4.3233171105384827e-02</internalNodes>
          <leafValues>
            -8.7033247947692871e-01 1.7945116758346558e-01</leafValues></_>
        <_>
          <internalNodes>
            0 -1 108 1.3712083455175161e-03</internalNodes>
          <leafValues>
            2.0587013661861420e-01 -8.0654788017272949e-01</leafValues></_>
        <_>
          <internalNodes>
            0 -1 22 -3.6642092466354370e-01</internalNodes>
          <leafValues>
            7.8937959671020508e-01 -2.4201960861682892e-01</leafValues></_>
        <_>
          <internalNodes>
            0 -1 35 1.1085191741585732e-02</internalNodes>
          <leafValues>
            -5.2640014886856079e-01 4.0902510285377502e-01</leafValues></_>
        <_>
          <internalNodes>
            0 -1 34 2.1123062819242477e-02</internalNodes>
          <leafValues>
            1.5812870860099792e-01 -9.1728621721267700e-01</leafValues></_>
        <_>
          <internalNodes>
            0 -1 116 3.0876817181706429e-02</internalNodes>
          <leafValues>
            -2.5722834467887878e-01 6.5789622068405151e-01</leafValues></_>
        <_>
          <internalNodes>
            0 -1 102 1.9490983337163925e-02</internalNodes>
          <leafValues>
            -3.9403936266899109e-01 4.5026192069053650e-01</leafValues></_>
        <_>
          <internalNodes>
            0 -1 19 2.7107577770948410e-03</internalNodes>
          <leafValues>
            1.7924833297729492e-01 -8.9246559143066406e-01</leafValues></_>
        <_>
          <internalNodes>
            0 -1 57 2.1584228306892328e-05</internalNodes>
          <leafValues>
            -4.9227914214134216e-01 2.5870105624198914e-01</leafValues></_></weakClassifiers></_>
    <!-- stage 10 -->
    <_>
      <maxWeakCount>7</maxWeakCount>
      <stageThreshold>-1.0500179529190063e+00</stageThreshold>
      <weakClassifiers>
        <_>
          <internalNodes>
            0 -1 33 1.0553479939699173e-01</internalNodes>
          <leafValues>
            -5.8156681060791016e-01 3.1566265225410461e-01</leafValues></_>
        <_>
          <internalNodes>
            0 -1 73 7.9598259180784225e-03</internalNodes>
          <leafValues>
            -2.8199052810668945e-01 5.9887063503265381e-01</leafValues></_>
        <_>
          <internalNodes>
            0 -1 50 -1.5681322664022446e-02</internalNodes>
          <leafValues>
            6.2762349843978882e-01 -3.4186902642250061e-01</leafValues></_>
        <_>
          <internalNodes>
            0 -1 89 -7.3424109723418951e-04</internalNodes>
          <leafValues>
            -8.4153157472610474e-01 2.1705020964145660e-01</leafValues></_>
        <_>
          <internalNodes>
            0 -1 5 -1.0903675854206085e-01</internalNodes>
          <leafValues>
            7.9433023929595947e-01 -1.8552732467651367e-01</leafValues></_>
        <_>
          <internalNodes>
            0 -1 77 -5.1221274770796299e-03</internalNodes>
          <leafValues>
            6.9215631484985352e-01 -2.8526240587234497e-01</leafValues></_>
        <_>
          <internalNodes>
            0 -1 85 -3.4641829552128911e-04</internalNodes>
          <leafValues>
            4.8787218332290649e-01 -3.1103518605232239e-01</leafValues></_></weakClassifiers></_>
    <!-- stage 11 -->
    <_>
      <maxWeakCount>12</maxWeakCount>
      <stageThreshold>-1.8136714696884155e+00</stageThreshold>
      <weakClassifiers>
        <_>
          <internalNodes>
            0 -1 46 6.5836068242788315e-03</internalNodes>
          <leafValues>
            -4.7080838680267334e-01 7.8658539056777954e-01</leafValues></_>
        <_>
          <internalNodes>
            0 -1 49 7.1538612246513367e-05</internalNodes>
          <leafValues>
            -5.5606204271316528e-01 3.3619925379753113e-01</leafValues></_>
        <_>
          <internalNodes>
            0 -1 17 -2.8191467747092247e-02</internalNodes>
          <leafValues>
            6.0050946474075317e-01 -3.0642291903495789e-01</leafValues></_>
        <_>
          <internalNodes>
            0 -1 20 -3.1732413917779922e-02</internalNodes>
          <leafValues>
            7.6165676116943359e-01 -2.1613043546676636e-01</leafValues></_>
        <_>
          <internalNodes>
            0 -1 49 1.3559067156165838e-03</internalNodes>
          <leafValues>
            2.1252751350402832e-01 -9.7835642099380493e-01</leafValues></_>
        <_>
          <internalNodes>
            0 -1 120 -6.3922062516212463e-02</internalNodes>
          <leafValues>
            9.1127145290374756e-01 -2.1888260543346405e-01</leafValues></_>
        <_>
          <internalNodes>
            0 -1 111 -6.0219494625926018e-03</internalNodes>
          <leafValues>
            6.3137024641036987e-01 -2.8194871544837952e-01</leafValues></_>
        <_>
          <internalNodes>
            0 -1 118 2.9455631738528609e-04</internalNodes>
          <leafValues>
            2.0013007521629333e-01 -9.6058195829391479e-01</leafValues></_>
        <_>
          <internalNodes>
            0 -1 2 -7.5716720893979073e-03</internalNodes>
          <leafValues>
            4.5556601881980896e-01 -3.6923885345458984e-01</leafValues></_>
        <_>
          <internalNodes>
            0 -1 70 -1.8143665511161089e-04</internalNodes>
          <leafValues>
            7.4092531204223633e-01 -2.6780620217323303e-01</leafValues></_>
        <_>
          <internalNodes>
            0 -1 52 -4.3850399553775787e-02</internalNodes>
          <leafValues>
            -6.5079903602600098e-01 2.6546239852905273e-01</leafValues></_>
        <_>
          <internalNodes>
            0 -1 13 -6.6196687519550323e-02</internalNodes>
          <leafValues>
            -8.3926033973693848e-01 1.9550873339176178e-01</leafValues></_></weakClassifiers></_>
    <!-- stage 12 -->
    <_>
      <maxWeakCount>10</maxWeakCount>
      <stageThreshold>-1.4785809516906738e+00</stageThreshold>
      <weakClassifiers>
        <_>
          <internalNodes>
            0 -1 121 -3.0205748975276947e-02</internalNodes>
          <leafValues>
            7.5409835577011108e-01 -4.8443430662155151e-01</leafValues></_>
        <_>
          <internalNodes>
            0 -1 94 3.4234147518873215e-02</internalNodes>
          <leafValues>
            1.8203511834144592e-01 -8.9248627424240112e-01</leafValues></_>
        <_>
          <internalNodes>
            0 -1 64 8.4918020293116570e-03</internalNodes>
          <leafValues>
            -2.4572049081325531e-01 8.2336336374282837e-01</leafValues></_>
        <_>
          <internalNodes>
            0 -1 68 2.1450363419717178e-05</internalNodes>
          <leafValues>
            -4.4848832488059998e-01 4.3404042720794678e-01</leafValues></_>
        <_>
          <internalNodes>
            0 -1 67 -1.0194683447480202e-02</internalNodes>
          <leafValues>
            -9.3543732166290283e-01 2.3294259607791901e-01</leafValues></_>
        <_>
          <internalNodes>
            0 -1 107 -6.9058891385793686e-03</internalNodes>
          <leafValues>
            6.3460934162139893e-01 -3.7830039858818054e-01</leafValues></_>
        <_>
          <internalNodes>
            0 -1 44 -7.3371857404708862e-02</internalNodes>
          <leafValues>
            9.1228258609771729e-01 -3.1367856264114380e-01</leafValues></_>
        <_>
          <internalNodes>
            0 -1 31 -2.2381471935659647e-03</internalNodes>
          <leafValues>
            5.9771776199340820e-01 -3.7813362479209900e-01</leafValues></_>
        <_>
          <internalNodes>
            0 -1 23 -2.9318049550056458e-02</internalNodes>
          <leafValues>
            7.6599186658859253e-01 -2.6883322000503540e-01</leafValues></_>
        <_>
          <internalNodes>
            0 -1 47 -1.1323091574013233e-02</internalNodes>
          <leafValues>
            7.8626310825347900e-01 -2.5849840044975281e-01</leafValues></_></weakClassifiers></_>
    <!-- stage 13 -->
    <_>
      <maxWeakCount>7</maxWeakCount>
      <stageThreshold>-1.0548642873764038e+00</stageThreshold>
      <weakClassifiers>
        <_>
          <internalNodes>
            0 -1 98 9.8695699125528336e-04</internalNodes>
          <leafValues>
            -6.3015520572662354e-01 5.6510066986083984e-01</leafValues></_>
        <_>
          <internalNodes>
            0 -1 91 -1.1229326948523521e-02</internalNodes>
          <leafValues>
            1. -2.9465398192405701e-01</leafValues></_>
        <_>
          <internalNodes>
            0 -1 74 1.8064863979816437e-04</internalNodes>
          <leafValues>
            -5.0212752819061279e-01 5.4434937238693237e-01</leafValues></_>
        <_>
          <internalNodes>
            0 -1 28 4.1935667395591736e-03</internalNodes>
          <leafValues>
            3.0506515502929688e-01 -8.1931203603744507e-01</leafValues></_>
        <_>
          <internalNodes>
            0 -1 39 -4.9191957805305719e-04</internalNodes>
          <leafValues>
            6.8334692716598511e-01 -3.9617508649826050e-01</leafValues></_>
        <_>
          <internalNodes>
            0 -1 58 -3.4343053121119738e-03</internalNodes>
          <leafValues>
            9.5977157354354858e-01 -3.0371931195259094e-01</leafValues></_>
        <_>
          <internalNodes>
            0 -1 59 -2.1570437820628285e-04</internalNodes>
          <leafValues>
            8.0854576826095581e-01 -2.3472002148628235e-01</leafValues></_></weakClassifiers></_>
    <!-- stage 14 -->
    <_>
      <maxWeakCount>8</maxWeakCount>
      <stageThreshold>-1.3176922798156738e+00</stageThreshold>
      <weakClassifiers>
        <_>
          <internalNodes>
            0 -1 86 -3.1237483490258455e-03</internalNodes>
          <leafValues>
            1. -6.0642570257186890e-01</leafValues></_>
        <_>
          <internalNodes>
            0 -1 87 -1.2505277991294861e-02</internalNodes>
          <leafValues>
            1. -4.2245760560035706e-01</leafValues></_>
        <_>
          <internalNodes>
            0 -1 53 1.9720860291272402e-03</internalNodes>
          <leafValues>
            -2.7502229809761047e-01 1.</leafValues></_>
        <_>
          <internalNodes>
            0 -1 60 -5.6213268544524908e-04</internalNodes>
          <leafValues>
            1. -2.6427450776100159e-01</leafValues></_>
        <_>
          <internalNodes>
            0 -1 122 1.9965648651123047e-02</internalNodes>
          <leafValues>
            5.1193338632583618e-01 -7.1083462238311768e-01</leafValues></_>
        <_>
          <internalNodes>
            0 -1 78 -9.4584684120491147e-05</internalNodes>
          <leafValues>
            -7.1141594648361206e-01 6.4086931943893433e-01</leafValues></_>
        <_>
          <internalNodes>
            0 -1 37 3.6921876017004251e-04</internalNodes>
          <leafValues>
            -4.2247292399406433e-01 8.4492516517639160e-01</leafValues></_>
        <_>
          <internalNodes>
            0 -1 42 -1.1216618120670319e-02</internalNodes>
          <leafValues>
            1. -3.9183121919631958e-01</leafValues></_></weakClassifiers></_></stages>
  <features>
    <_>
      <rects>
        <_>
          0 4 4 14 -1.</_>
        <_>
          2 4 2 14 2.</_></rects>
      <tilted>0</tilted></_>
    <_>
      <rects>
        <_>
          0 5 2 12 -1.</_>
        <_>
          1 5 1 12 2.</_></rects>
      <tilted>0</tilted></_>
    <_>
      <rects>
        <_>
          0 14 12 1 -1.</_>
        <_>
          3 14 6 1 2.</_></rects>
      <tilted>0</tilted></_>
    <_>
      <rects>
        <_>
          1 3 18 15 -1.</_>
        <_>
          7 8 6 5 9.</_></rects>
      <tilted>0</tilted></_>
    <_>
      <rects>
        <_>
          2 1 18 18 -1.</_>
        <_>
          8 7 6 6 9.</_></rects>
      <tilted>0</tilted></_>
    <_>
      <rects>
        <_>
          2 4 10 12 -1.</_>
        <_>
          2 4 5 6 2.</_>
        <_>
          7 10 5 6 2.</_></rects>
      <tilted>0</tilted></_>
    <_>
      <rects>
        <_>
          2 4 10 14 -1.</_>
        <_>
          2 4 5 7 2.</_>
        <_>
          7 11 5 7 2.</_></rects>
      <tilted>0</tilted></_>
    <_>
      <rects>
        <_>
          2 4 17 12 -1.</_>
        <_>
          2 10 17 6 2.</_></rects>
      <tilted>0</tilted></_>
    <_>
      <rects>
        <_>
          3 5 12 10 -1.</_>
        <_>
          9 5 6 10 2.</_></rects>
      <tilted>0</tilted></_>
    <_>
      <rects>
        <_>
          3 7 6 6 -1.</_>
        <_>
          5 7 2 6 3.</_></rects>
      <tilted>0</tilted></_>
    <_>
      <rects>
        <_>
          4 0 16 20 -1.</_>
        <_>
          12 0 8 20 2.</_></rects>
      <tilted>0</tilted></_>
    <_>
      <rects>
        <_>
          4 0 12 20 -1.</_>
        <_>
          4 5 12 10 2.</_></rects>
      <tilted>0</tilted></_>
    <_>
      <rects>
        <_>
          4 1 16 18 -1.</_>
        <_>
          12 1 8 18 2.</_></rects>
      <tilted>0</tilted></_>
    <_>
      <rects>
        <_>
          4 2 16 18 -1.</_>
        <_>
          12 2 8 18 2.</_></rects>
      <tilted>0</tilted></_>
    <_>
      <rects>
        <_>
          4 2 12 16 -1.</_>
        <_>
          4 6 12 8 2.</_></rects>
      <tilted>0</tilted></_>
    <_>
      <rects>
        <_>
          4 3 13 15 -1.</_>
        <_>
          4 8 13 5 3.</_></rects>
      <tilted>0</tilted></_>
    <_>
      <rects>
        <_>
          4 4 8 11 -1.</_>
        <_>
          8 4 4 11 2.</_></rects>
      <tilted>0</tilted></_>
    <_>
      <rects>
        <_>
          4 4 5 6 -1.</_>
        <_>
          4 6 5 2 3.</_></rects>
      <tilted>0</tilted></_>
    <_>
      <rects>
        <_>
          4 5 16 10 -1.</_>
        <_>
          8 5 8 10 2.</_></rects>
      <tilted>0</tilted></_>
    <_>
      <rects>
        <_>
          4 7 4 7 -1.</_>
        <_>
          5 7 2 7 2.</_></rects>
      <tilted>0</tilted></_>
    <_>
      <rects>
        <_>
          5 1 9 9 -1.</_>
        <_>
          8 1 3 9 3.</_></rects>
      <tilted>0</tilted></_>
    <_>
      <rects>
        <_>
          5 1 15 18 -1.</_>
        <_>
          10 7 5 6 9.</_></rects>
      <tilted>0</tilted></_>
    <_>
      <rects>
        <_>
          5 1 11 18 -1.</_>
        <_>
          5 7 11 6 3.</_></rects>
      <tilted>0</tilted></_>
    <_>
      <rects>
        <_>
          5 2 9 6 -1.</_>
        <_>
          8 2 3 6 3.</_></rects>
      <tilted>0</tilted></_>
    <_>
      <rects>
        <_>
          5 2 15 18 -1.</_>
        <_>
          10 8 5 6 9.</_></rects>
      <tilted>0</tilted></_>
    <_>
      <rects>
        <_>
          5 4 7 12 -1.</_>
        <_>
          5 8 7 4 3.</_></rects>
      <tilted>0</tilted></_>
    <_>
      <rects>
        <_>
          5 6 2 9 -1.</_>
        <_>
          5 9 2 3 3.</_></rects>
      <tilted>0</tilted></_>
    <_>
      <rects>
        <_>
          5 6 3 9 -1.</_>
        <_>
          5 9 3 3 3.</_></rects>
      <tilted>0</tilted></_>
    <_>
      <rects>
        <_>
          5 8 2 11 -1.</_>
        <_>
          6 8 1 11 2.</_></rects>
      <tilted>0</tilted></_>
    <_>
      <rects>
        <_>
          5 9 10 2 -1.</_>
        <_>
          10 9 5 2 2.</_></rects>
      <tilted>0</tilted></_>
    <_>
      <rects>
        <_>
          5 9 10 2 -1.</_>
        <_>
          5 10 10 1 2.</_></rects>
      <tilted>0</tilted></_>
    <_>
      <rects>
        <_>
          6 2 4 4 -1.</_>
        <_>
          5 3 4 2 2.</_></rects>
      <tilted>1</tilted></_>
    <_>
      <rects>
        <_>
          6 3 12 5 -1.</_>
        <_>
          6 3 6 5 2.</_></rects>
      <tilted>1</tilted></_>
    <_>
      <rects>
        <_>
          6 4 12 12 -1.</_>
        <_>
          9 4 6 12 2.</_></rects>
      <tilted>0</tilted></_>
    <_>
      <rects>
        <_>
          6 5 8 10 -1.</_>
        <_>
          8 5 4 10 2.</_></rects>
      <tilted>0</tilted></_>
    <_>
      <rects>
        <_>
          6 5 5 8 -1.</_>
        <_>
          6 9 5 4 2.</_></rects>
      <tilted>0</tilted></_>
    <_>
      <rects>
        <_>
          6 9 8 1 -1.</_>
        <_>
          10 9 4 1 2.</_></rects>
      <tilted>0</tilted></_>
    <_>
      <rects>
        <_>
          6 10 9 1 -1.</_>
        <_>
          9 10 3 1 3.</_></rects>
      <tilted>0</tilted></_>
    <_>
      <rects>
        <_>
          6 12 9 5 -1.</_>
        <_>
          9 12 3 5 3.</_></rects>
      <tilted>0</tilted></_>
    <_>
      <rects>
        <_>
          6 13 2 6 -1.</_>
        <_>
          6 15 2 2 3.</_></rects>
      <tilted>0</tilted></_>
    <_>
      <rects>
        <_>
          7 0 9 4 -1.</_>
        <_>
          6 1 9 2 2.</_></rects>
      <tilted>1</tilted></_>
    <_>
      <rects>
        <_>
          7 4 1 12 -1.</_>
        <_>
          7 8 1 4 3.</_></rects>
      <tilted>0</tilted></_>
    <_>
      <rects>
        <_>
          7 4 6 6 -1.</_>
        <_>
          5 6 6 2 3.</_></rects>
      <tilted>1</tilted></_>
    <_>
      <rects>
        <_>
          7 5 4 12 -1.</_>
        <_>
          7 5 2 6 2.</_>
        <_>
          9 11 2 6 2.</_></rects>
      <tilted>0</tilted></_>
    <_>
      <rects>
        <_>
          7 5 12 12 -1.</_>
        <_>
          10 5 6 12 2.</_></rects>
      <tilted>0</tilted></_>
    <_>
      <rects>
        <_>
          7 5 8 4 -1.</_>
        <_>
          7 5 4 4 2.</_></rects>
      <tilted>1</tilted></_>
    <_>
      <rects>
        <_>
          7 6 2 3 -1.</_>
        <_>
          7 7 2 1 3.</_></rects>
      <tilted>0</tilted></_>
    <_>
      <rects>
        <_>
          7 6 4 10 -1.</_>
        <_>
          7 6 2 5 2.</_>
        <_>
          9 11 2 5 2.</_></rects>
      <tilted>0</tilted></_>
    <_>
      <rects>
        <_>
          7 8 12 6 -1.</_>
        <_>
          10 8 6 6 2.</_></rects>
      <tilted>0</tilted></_>
    <_>
      <rects>
        <_>
          7 9 6 1 -1.</_>
        <_>
          9 9 2 1 3.</_></rects>
      <tilted>0</tilted></_>
    <_>
      <rects>
        <_>
          8 0 5 4 -1.</_>
        <_>
          7 1 5 2 2.</_></rects>
      <tilted>1</tilted></_>
    <_>
      <rects>
        <_>
          8 1 5 3 -1.</_>
        <_>
          7 2 5 1 3.</_></rects>
      <tilted>1</tilted></_>
    <_>
      <rects>
        <_>
          8 3 12 4 -1.</_>
        <_>
          8 3 6 4 2.</_></rects>
      <tilted>1</tilted></_>
    <_>
      <rects>
        <_>
          8 6 3 8 -1.</_>
        <_>
          9 6 1 8 3.</_></rects>
      <tilted>0</tilted></_>
    <_>
      <rects>
        <_>
          8 9 3 3 -1.</_>
        <_>
          9 10 1 1 9.</_></rects>
      <tilted>0</tilted></_>
    <_>
      <rects>
        <_>
          8 10 4 1 -1.</_>
        <_>
          9 10 2 1 2.</_></rects>
      <tilted>0</tilted></_>
    <_>
      <rects>
        <_>
          8 10 6 2 -1.</_>
        <_>
          11 10 3 2 2.</_></rects>
      <tilted>0</tilted></_>
    <_>
      <rects>
        <_>
          8 11 6 1 -1.</_>
        <_>
          11 11 3 1 2.</_></rects>
      <tilted>0</tilted></_>
    <_>
      <rects>
        <_>
          8 12 2 1 -1.</_>
        <_>
          8 12 1 1 2.</_></rects>
      <tilted>1</tilted></_>
    <_>
      <rects>
        <_>
          8 12 3 2 -1.</_>
        <_>
          9 12 1 2 3.</_></rects>
      <tilted>0</tilted></_>
    <_>
      <rects>
        <_>
          8 13 3 1 -1.</_>
        <_>
          9 13 1 1 3.</_></rects>
      <tilted>0</tilted></_>
    <_>
      <rects>
        <_>
          9 1 5 4 -1.</_>
        <_>
          8 2 5 2 2.</_></rects>
      <tilted>1</tilted></_>
    <_>
      <rects>
        <_>
          9 2 6 5 -1.</_>
        <_>
          9 2 3 5 2.</_></rects>
      <tilted>1</tilted></_>
    <_>
      <rects>
        <_>
          9 2 4 3 -1.</_>
        <_>
          8 3 4 1 3.</_></rects>
      <tilted>1</tilted></_>
    <_>
      <rects>
        <_>
          9 3 7 3 -1.</_>
        <_>
          8 4 7 1 3.</_></rects>
      <tilted>1</tilted></_>
    <_>
      <rects>
        <_>
          9 4 4 13 -1.</_>
        <_>
          10 4 2 13 2.</_></rects>
      <tilted>0</tilted></_>
    <_>
      <rects>
        <_>
          9 5 9 11 -1.</_>
        <_>
          12 5 3 11 3.</_></rects>
      <tilted>0</tilted></_>
    <_>
      <rects>
        <_>
          9 7 4 3 -1.</_>
        <_>
          9 7 2 3 2.</_></rects>
      <tilted>1</tilted></_>
    <_>
      <rects>
        <_>
          9 9 2 2 -1.</_>
        <_>
          10 9 1 2 2.</_></rects>
      <tilted>0</tilted></_>
    <_>
      <rects>
        <_>
          9 9 2 3 -1.</_>
        <_>
          9 10 2 1 3.</_></rects>
      <tilted>0</tilted></_>
    <_>
      <rects>
        <_>
          9 12 2 2 -1.</_>
        <_>
          9 12 1 1 2.</_>
        <_>
          10 13 1 1 2.</_></rects>
      <tilted>0</tilted></_>
    <_>
      <rects>
        <_>
          10 2 4 14 -1.</_>
        <_>
          10 2 2 7 2.</_>
        <_>
          12 9 2 7 2.</_></rects>
      <tilted>0</tilted></_>
    <_>
      <rects>
        <_>
          10 2 4 4 -1.</_>
        <_>
          9 3 4 2 2.</_></rects>
      <tilted>1</tilted></_>
    <_>
      <rects>
        <_>
          10 3 3 3 -1.</_>
        <_>
          9 4 3 1 3.</_></rects>
      <tilted>1</tilted></_>
    <_>
      <rects>
        <_>
          10 4 4 2 -1.</_>
        <_>
          10 5 4 1 2.</_></rects>
      <tilted>0</tilted></_>
    <_>
      <rects>
        <_>
          10 5 8 10 -1.</_>
        <_>
          12 5 4 10 2.</_></rects>
      <tilted>0</tilted></_>
    <_>
      <rects>
        <_>
          10 8 5 4 -1.</_>
        <_>
          10 9 5 2 2.</_></rects>
      <tilted>0</tilted></_>
    <_>
      <rects>
        <_>
          10 9 4 9 -1.</_>
        <_>
          12 9 2 9 2.</_></rects>
      <tilted>0</tilted></_>
    <_>
      <rects>
        <_>
          10 10 3 2 -1.</_>
        <_>
          10 11 3 1 2.</_></rects>
      <tilted>0</tilted></_>
    <_>
      <rects>
        <_>
          10 10 6 2 -1.</_>
        <_>
          13 10 3 2 2.</_></rects>
      <tilted>0</tilted></_>
    <_>
      <rects>
        <_>
          10 11 4 4 -1.</_>
        <_>
          11 12 2 4 2.</_></rects>
      <tilted>1</tilted></_>
    <_>
      <rects>
        <_>
          10 11 4 5 -1.</_>
        <_>
          11 12 2 5 2.</_></rects>
      <tilted>1</tilted></_>
    <_>
      <rects>
        <_>
          10 11 3 6 -1.</_>
        <_>
          11 12 1 6 3.</_></rects>
      <tilted>1</tilted></_>
    <_>
      <rects>
        <_>
          11 1 6 10 -1.</_>
        <_>
          11 1 6 5 2.</_></rects>
      <tilted>1</tilted></_>
    <_>
      <rects>
        <_>
          11 2 3 4 -1.</_>
        <_>
          10 3 3 2 2.</_></rects>
      <tilted>1</tilted></_>
    <_>
      <rects>
        <_>
          11 3 2 4 -1.</_>
        <_>
          12 3 1 4 2.</_></rects>
      <tilted>0</tilted></_>
    <_>
      <rects>
        <_>
          11 4 1 6 -1.</_>
        <_>
          9 6 1 2 3.</_></rects>
      <tilted>1</tilted></_>
    <_>
      <rects>
        <_>
          11 6 4 12 -1.</_>
        <_>
          11 6 2 6 2.</_>
        <_>
          13 12 2 6 2.</_></rects>
      <tilted>0</tilted></_>
    <_>
      <rects>
        <_>
          11 8 1 2 -1.</_>
        <_>
          11 8 1 1 2.</_></rects>
      <tilted>1</tilted></_>
    <_>
      <rects>
        <_>
          11 8 4 4 -1.</_>
        <_>
          13 8 2 4 2.</_></rects>
      <tilted>0</tilted></_>
    <_>
      <rects>
        <_>
          11 9 1 2 -1.</_>
        <_>
          11 9 1 1 2.</_></rects>
      <tilted>1</tilted></_>
    <_>
      <rects>
        <_>
          11 9 3 4 -1.</_>
        <_>
          11 9 3 2 2.</_></rects>
      <tilted>1</tilted></_>
    <_>
      <rects>
        <_>
          12 1 5 6 -1.</_>
        <_>
          10 3 5 2 3.</_></rects>
      <tilted>1</tilted></_>
    <_>
      <rects>
        <_>
          12 4 4 8 -1.</_>
        <_>
          12 4 2 4 2.</_>
        <_>
          14 8 2 4 2.</_></rects>
      <tilted>0</tilted></_>
    <_>
      <rects>
        <_>
          12 6 8 4 -1.</_>
        <_>
          12 6 8 2 2.</_></rects>
      <tilted>1</tilted></_>
    <_>
      <rects>
        <_>
          12 8 4 2 -1.</_>
        <_>
          13 9 2 2 2.</_></rects>
      <tilted>1</tilted></_>
    <_>
      <rects>
        <_>
          12 8 3 4 -1.</_>
        <_>
          12 9 3 2 2.</_></rects>
      <tilted>0</tilted></_>
    <_>
      <rects>
        <_>
          12 12 2 7 -1.</_>
        <_>
          13 12 1 7 2.</_></rects>
      <tilted>0</tilted></_>
    <_>
      <rects>
        <_>
          12 12 4 4 -1.</_>
        <_>
          12 13 4 2 2.</_></rects>
      <tilted>0</tilted></_>
    <_>
      <rects>
        <_>
          13 2 7 2 -1.</_>
        <_>
          13 2 7 1 2.</_></rects>
      <tilted>1</tilted></_>
    <_>
      <rects>
        <_>
          13 6 6 9 -1.</_>
        <_>
          16 6 3 9 2.</_></rects>
      <tilted>0</tilted></_>
    <_>
      <rects>
        <_>
          13 7 1 6 -1.</_>
        <_>
          13 9 1 2 3.</_></rects>
      <tilted>0</tilted></_>
    <_>
      <rects>
        <_>
          13 7 6 6 -1.</_>
        <_>
          15 9 2 2 9.</_></rects>
      <tilted>0</tilted></_>
    <_>
      <rects>
        <_>
          13 8 3 7 -1.</_>
        <_>
          14 9 1 7 3.</_></rects>
      <tilted>1</tilted></_>
    <_>
      <rects>
        <_>
          14 1 6 10 -1.</_>
        <_>
          14 1 3 5 2.</_>
        <_>
          17 6 3 5 2.</_></rects>
      <tilted>0</tilted></_>
    <_>
      <rects>
        <_>
          14 1 5 12 -1.</_>
        <_>
          14 1 5 6 2.</_></rects>
      <tilted>1</tilted></_>
    <_>
      <rects>
        <_>
          14 2 6 2 -1.</_>
        <_>
          14 2 6 1 2.</_></rects>
      <tilted>1</tilted></_>
    <_>
      <rects>
        <_>
          14 3 2 15 -1.</_>
        <_>
          15 3 1 15 2.</_></rects>
      <tilted>0</tilted></_>
    <_>
      <rects>
        <_>
          14 6 3 4 -1.</_>
        <_>
          14 6 3 2 2.</_></rects>
      <tilted>1</tilted></_>
    <_>
      <rects>
        <_>
          14 7 1 4 -1.</_>
        <_>
          14 7 1 2 2.</_></rects>
      <tilted>1</tilted></_>
    <_>
      <rects>
        <_>
          14 7 6 8 -1.</_>
        <_>
          17 7 3 8 2.</_></rects>
      <tilted>0</tilted></_>
    <_>
      <rects>
        <_>
          14 8 3 8 -1.</_>
        <_>
          15 9 1 8 3.</_></rects>
      <tilted>1</tilted></_>
    <_>
      <rects>
        <_>
          14 9 2 2 -1.</_>
        <_>
          14 9 1 2 2.</_></rects>
      <tilted>1</tilted></_>
    <_>
      <rects>
        <_>
          14 11 6 8 -1.</_>
        <_>
          14 11 3 4 2.</_>
        <_>
          17 15 3 4 2.</_></rects>
      <tilted>0</tilted></_>
    <_>
      <rects>
        <_>
          14 12 2 5 -1.</_>
        <_>
          15 12 1 5 2.</_></rects>
      <tilted>0</tilted></_>
    <_>
      <rects>
        <_>
          15 3 3 3 -1.</_>
        <_>
          14 4 3 1 3.</_></rects>
      <tilted>1</tilted></_>
    <_>
      <rects>
        <_>
          15 6 4 9 -1.</_>
        <_>
          17 6 2 9 2.</_></rects>
      <tilted>0</tilted></_>
    <_>
      <rects>
        <_>
          15 9 2 3 -1.</_>
        <_>
          15 9 1 3 2.</_></rects>
      <tilted>1</tilted></_>
    <_>
      <rects>
        <_>
          15 10 1 2 -1.</_>
        <_>
          15 10 1 1 2.</_></rects>
      <tilted>1</tilted></_>
    <_>
      <rects>
        <_>
          16 8 4 10 -1.</_>
        <_>
          16 8 2 5 2.</_>
        <_>
          18 13 2 5 2.</_></rects>
      <tilted>0</tilted></_>
    <_>
      <rects>
        <_>
          16 11 4 5 -1.</_>
        <_>
          16 11 2 5 2.</_></rects>
      <tilted>1</tilted></_>
    <_>
      <rects>
        <_>
          16 12 4 4 -1.</_>
        <_>
          17 13 2 4 2.</_></rects>
      <tilted>1</tilted></_>
    <_>
      <rects>
        <_>
          18 0 1 20 -1.</_>
        <_>
          18 5 1 10 2.</_></rects>
      <tilted>0</tilted></_></features></cascade>
</opencv_storage>
